FANN_FLO_2.1
num_layers=5
learning_rate=0.050000
connection_rate=1.000000
network_type=0
learning_momentum=0.000000
training_algorithm=2
train_error_function=1
train_stop_function=0
cascade_output_change_fraction=0.010000
quickprop_decay=-0.000100
quickprop_mu=1.750000
rprop_increase_factor=1.200000
rprop_decrease_factor=0.500000
rprop_delta_min=0.000000
rprop_delta_max=50.000000
rprop_delta_zero=0.100000
cascade_output_stagnation_epochs=12
cascade_candidate_change_fraction=0.010000
cascade_candidate_stagnation_epochs=12
cascade_max_out_epochs=150
cascade_min_out_epochs=50
cascade_max_cand_epochs=150
cascade_min_cand_epochs=50
cascade_num_candidate_groups=2
bit_fail_limit=3.49999994039535522461e-01
cascade_candidate_limit=1.00000000000000000000e+03
cascade_weight_multiplier=4.00000005960464477539e-01
cascade_activation_functions_count=10
cascade_activation_functions=3 5 7 8 10 11 14 15 16 17 
cascade_activation_steepnesses_count=4
cascade_activation_steepnesses=2.50000000000000000000e-01 5.00000000000000000000e-01 7.50000000000000000000e-01 1.00000000000000000000e+00 
layer_sizes=3 16 5 9 2 
scale_included=0
neurons (num_inputs, activation_function, activation_steepness)=(0, 0, 0.00000000000000000000e+00) (0, 0, 0.00000000000000000000e+00) (0, 0, 0.00000000000000000000e+00) (3, 5, 5.00000000000000000000e-01) (3, 5, 5.00000000000000000000e-01) (3, 5, 5.00000000000000000000e-01) (3, 5, 5.00000000000000000000e-01) (3, 5, 5.00000000000000000000e-01) (3, 5, 5.00000000000000000000e-01) (3, 5, 5.00000000000000000000e-01) (3, 5, 5.00000000000000000000e-01) (3, 5, 5.00000000000000000000e-01) (3, 5, 5.00000000000000000000e-01) (3, 5, 5.00000000000000000000e-01) (3, 5, 5.00000000000000000000e-01) (3, 5, 5.00000000000000000000e-01) (3, 5, 5.00000000000000000000e-01) (3, 5, 5.00000000000000000000e-01) (0, 5, 5.00000000000000000000e-01) (16, 5, 5.00000000000000000000e-01) (16, 5, 5.00000000000000000000e-01) (16, 5, 5.00000000000000000000e-01) (16, 5, 5.00000000000000000000e-01) (0, 5, 5.00000000000000000000e-01) (5, 5, 5.00000000000000000000e-01) (5, 5, 5.00000000000000000000e-01) (5, 5, 5.00000000000000000000e-01) (5, 5, 5.00000000000000000000e-01) (5, 5, 5.00000000000000000000e-01) (5, 5, 5.00000000000000000000e-01) (5, 5, 5.00000000000000000000e-01) (5, 5, 5.00000000000000000000e-01) (0, 5, 5.00000000000000000000e-01) (9, 5, 5.00000000000000000000e-01) (0, 5, 5.00000000000000000000e-01) 
connections (connected_to_neuron, weight)=(0, -2.17291750013828277588e-02) (1, 5.94484567642211914063e-01) (2, -6.20947480201721191406e-01) (0, 1.65918334960937500000e+02) (1, 1.49964245605468750000e+03) (2, -7.48374283313751220703e-01) (0, 1.49999951171875000000e+03) (1, 1.49999987792968750000e+03) (2, -9.53764343261718750000e+01) (0, -1.13752745091915130615e-02) (1, 1.35441303253173828125e+00) (2, -5.32091140747070312500e+00) (0, 1.39340329170227050781e+00) (1, 6.58018467947840690613e-03) (2, -1.90535116195678710938e+00) (0, -2.64662295579910278320e-01) (1, 8.47013518214225769043e-02) (2, -9.21041369438171386719e-01) (0, -3.31866860389709472656e-01) (1, 1.16428315639495849609e-01) (2, 8.41295838356018066406e-01) (0, 5.94047427177429199219e-01) (1, -6.45891189575195312500e-01) (2, 2.55041098594665527344e+00) (0, 8.08452308177947998047e-01) (1, -1.72937020659446716309e-01) (2, 1.65577816963195800781e+00) (0, -1.10040879249572753906e+00) (1, 8.38249564170837402344e-01) (2, -2.18912672996520996094e+00) (0, -5.02417793273925781250e+01) (1, -1.35398913574218750000e+03) (2, 1.38355560302734375000e+01) (0, 9.90896667480468750000e+02) (1, 1.50000000000000000000e+03) (2, 6.14587664604187011719e-01) (0, 1.13196539878845214844e+00) (1, 9.98241603374481201172e-02) (2, 2.52606701850891113281e+00) (0, 1.49999145507812500000e+03) (1, 1.49999975585937500000e+03) (2, -4.16479919433593750000e+02) (0, 2.35583343505859375000e+01) (1, 1.50000000000000000000e+03) (2, 5.76347589492797851563e-01) (3, 1.00587558746337890625e+00) (4, 3.26302975416183471680e-01) (5, 2.73348689079284667969e-01) (6, 9.15460348129272460938e-01) (7, 5.14466881752014160156e-01) (8, 1.21864712238311767578e+00) (9, 1.92853987216949462891e+00) (10, 1.68990993499755859375e+00) (11, 5.21196484565734863281e-01) (12, 3.31985026597976684570e-01) (13, 7.77070462703704833984e-01) (14, -3.90179514884948730469e-01) (15, 4.87544268369674682617e-01) (16, 2.47133538126945495605e-01) (17, -5.07750630378723144531e-01) (18, 2.13791102170944213867e-01) (3, -1.63736355304718017578e+00) (4, 1.57841905951499938965e-01) (5, 1.54187333583831787109e+00) (6, -1.88327968120574951172e-01) (7, 2.96582877635955810547e-01) (8, 1.12734889984130859375e+00) (9, -1.33956766128540039063e+00) (10, -1.20176982879638671875e+00) (11, 1.62549048662185668945e-01) (12, -6.36355400085449218750e-01) (13, 9.67792570590972900391e-01) (14, 6.19974195957183837891e-01) (15, 2.91870176792144775391e-01) (16, 8.42636004090309143066e-02) (17, 6.84903085231781005859e-01) (18, -3.79941463470458984375e-02) (3, -2.04276638031005859375e+01) (4, 1.97012975811958312988e-01) (5, 6.29996478557586669922e-01) (6, -3.60021901130676269531e+00) (7, 1.86703133583068847656e+00) (8, 1.45791339874267578125e+00) (9, -7.54420757293701171875e+00) (10, -9.68192195892333984375e+00) (11, -2.95910779386758804321e-02) (12, 2.33157086372375488281e+00) (13, 1.30110383033752441406e+00) (14, 2.77103281021118164063e+00) (15, -4.88415032625198364258e-01) (16, 2.74346232414245605469e-01) (17, 5.08995056152343750000e+00) (18, -1.91902890801429748535e-01) (3, 6.73887610435485839844e-01) (4, 8.04341614246368408203e-01) (5, 3.61970663070678710938e-01) (6, 1.48871052265167236328e+00) (7, 1.76789849996566772461e-01) (8, 5.67032933235168457031e-01) (9, 2.19933792948722839355e-01) (10, 3.11660099029541015625e+00) (11, 4.50270175933837890625e-01) (12, 3.32707190513610839844e+00) (13, 3.94388765096664428711e-01) (14, 1.68073087930679321289e-01) (15, 3.39160346984863281250e+00) (16, 8.93504798412322998047e-01) (17, -5.29770493507385253906e-01) (18, 5.29036939144134521484e-01) (19, 1.49992785644531250000e+03) (20, 5.43639802932739257813e+00) (21, 1.74587953090667724609e+00) (22, 1.28368949890136718750e+00) (23, -1.23568110167980194092e-01) (19, 2.86061153411865234375e+01) (20, 5.94773826599121093750e+01) (21, 1.17527306079864501953e+00) (22, -3.47756271362304687500e+01) (23, 9.60233867168426513672e-01) (19, -1.48245422363281250000e+03) (20, 6.30407333374023437500e+00) (21, -8.03894233703613281250e+00) (22, 2.51260528564453125000e+02) (23, 9.09924221038818359375e+00) (19, 4.18284950256347656250e+01) (20, -1.09766273498535156250e+02) (21, 7.69218266010284423828e-01) (22, 1.26637067794799804688e+01) (23, -2.37657397985458374023e-01) (19, -1.49127319335937500000e+03) (20, 3.55305027961730957031e+00) (21, 7.55884125828742980957e-02) (22, 4.68541107177734375000e+02) (23, 1.00876212120056152344e+00) (19, -4.50836761474609375000e+02) (20, 2.74218893051147460938e+00) (21, -1.48180854320526123047e+00) (22, 7.95616149902343750000e+01) (23, 3.42955207824707031250e+00) (19, 1.49963110351562500000e+03) (20, 5.29453468322753906250e+00) (21, 1.93717694282531738281e+00) (22, -4.20461148023605346680e-01) (23, -2.17413216829299926758e-01) (19, 5.90205907821655273438e+00) (20, 8.25769543647766113281e-01) (21, 3.57621622085571289063e+00) (22, -9.80434000492095947266e-01) (23, 1.70184254646301269531e-01) (24, 4.49151277542114257813e-01) (25, 1.53766381740570068359e+00) (26, -2.96879500150680541992e-01) (27, -3.63311219215393066406e+00) (28, -2.10994148254394531250e+00) (29, -5.54330289363861083984e-01) (30, 4.10927027463912963867e-01) (31, 3.86861824989318847656e+00) (32, -2.40127295255661010742e-01) 
