FANN_FIX_2.0
decimal_point=9
num_layers=5
learning_rate=0.050000
connection_rate=1.000000
network_type=0
learning_momentum=0.000000
training_algorithm=2
train_error_function=1
train_stop_function=0
cascade_output_change_fraction=0.010000
quickprop_decay=-0.000100
quickprop_mu=1.750000
rprop_increase_factor=1.200000
rprop_decrease_factor=0.500000
rprop_delta_min=0.000000
rprop_delta_max=50.000000
rprop_delta_zero=0.100000
cascade_output_stagnation_epochs=12
cascade_candidate_change_fraction=0.010000
cascade_candidate_stagnation_epochs=12
cascade_max_out_epochs=150
cascade_min_out_epochs=50
cascade_max_cand_epochs=150
cascade_min_cand_epochs=50
cascade_num_candidate_groups=2
bit_fail_limit=179
cascade_candidate_limit=512000
cascade_weight_multiplier=205
cascade_activation_functions_count=10
cascade_activation_functions=3 5 7 8 10 11 14 15 16 17 
cascade_activation_steepnesses_count=4
cascade_activation_steepnesses=128 256 384 512 
layer_sizes=3 16 5 9 2 
neurons (num_inputs, activation_function, activation_steepness)=(0, 0, 0) (0, 0, 0) (0, 0, 0) (3, 5, 256) (3, 5, 256) (3, 5, 256) (3, 5, 256) (3, 5, 256) (3, 5, 256) (3, 5, 256) (3, 5, 256) (3, 5, 256) (3, 5, 256) (3, 5, 256) (3, 5, 256) (3, 5, 256) (3, 5, 256) (3, 5, 256) (0, 5, 256) (16, 5, 256) (16, 5, 256) (16, 5, 256) (16, 5, 256) (0, 5, 256) (5, 5, 256) (5, 5, 256) (5, 5, 256) (5, 5, 256) (5, 5, 256) (5, 5, 256) (5, 5, 256) (5, 5, 256) (0, 5, 256) (9, 5, 256) (0, 5, 256) 
connections (connected_to_neuron, weight)=(0, -11) (1, 304) (2, -318) (0, 84950) (1, 767817) (2, -383) (0, 768000) (1, 768000) (2, -48833) (0, -6) (1, 693) (2, -2724) (0, 713) (1, 3) (2, -976) (0, -136) (1, 43) (2, -472) (0, -170) (1, 60) (2, 431) (0, 304) (1, -331) (2, 1306) (0, 414) (1, -89) (2, 848) (0, -563) (1, 429) (2, -1121) (0, -25724) (1, -693242) (2, 7084) (0, 507339) (1, 768000) (2, 315) (0, 580) (1, 51) (2, 1293) (0, 767996) (1, 768000) (2, -213238) (0, 12062) (1, 768000) (2, 295) (3, 515) (4, 167) (5, 140) (6, 469) (7, 263) (8, 624) (9, 987) (10, 865) (11, 267) (12, 170) (13, 398) (14, -200) (15, 250) (16, 127) (17, -260) (18, 109) (3, -838) (4, 81) (5, 789) (6, -96) (7, 152) (8, 577) (9, -686) (10, -615) (11, 83) (12, -326) (13, 496) (14, 317) (15, 149) (16, 43) (17, 351) (18, -19) (3, -10459) (4, 101) (5, 323) (6, -1843) (7, 956) (8, 746) (9, -3863) (10, -4957) (11, -15) (12, 1194) (13, 666) (14, 1419) (15, -250) (16, 140) (17, 2606) (18, -98) (3, 345) (4, 412) (5, 185) (6, 762) (7, 91) (8, 290) (9, 113) (10, 1596) (11, 231) (12, 1703) (13, 202) (14, 86) (15, 1737) (16, 457) (17, -271) (18, 271) (19, 767963) (20, 2783) (21, 894) (22, 657) (23, -63) (19, 14646) (20, 30452) (21, 602) (22, -17805) (23, 492) (19, -759017) (20, 3228) (21, -4116) (22, 128645) (23, 4659) (19, 21416) (20, -56200) (21, 394) (22, 6484) (23, -122) (19, -763532) (20, 1819) (21, 39) (22, 239893) (23, 516) (19, -230828) (20, 1404) (21, -759) (22, 40736) (23, 1756) (19, 767811) (20, 2711) (21, 992) (22, -215) (23, -111) (19, 3022) (20, 423) (21, 1831) (22, -502) (23, 87) (24, 230) (25, 787) (26, -152) (27, -1860) (28, -1080) (29, -284) (30, 210) (31, 1981) (32, -123) 
